{"weights": [[[-0.49858010822913845, 0.8282158392324996, -0.3997580534965293, 1.212256116422398, -0.4580819701844439, 2.352258717684428], [0.08088158221067311, 0.1476465864291716, 0.2744438622320118, -0.9687900304999538, 0.49311561814812493, -2.0894607246348347], [0.36857947744197717, -0.7389598639210826, -0.19579402625250458, 0.8646323101197847, -0.5847543660106856, 1.2231282403777974], [-2.2030003928821706, 0.25898159081515604, 0.581640162764251, -1.1763888951661394, -1.866258200445033, -1.2576454932749963], [0.02291881663651272, -0.7431375729424999, 1.7907890006541813, -0.039230157611392244, 0.08132343902474595, 0.2926723319870774], [0.577389364079946, 0.17468087960241677, 0.7020184803921827, -0.45975162145100595, 0.037471411796151814, 1.7313638489445273], [-0.7209757905405378, 0.8606855479743012, -0.3547336206614873, 0.6513254537499844, 0.7766593185846554, 1.181330233864268], [-0.00861622123820129, 0.352346600667857, -0.5033190639679374, 1.1921236824926342, 1.1707815472574676, -0.6518599262769983], [-1.3592079864946005, -0.29851707528422594, 0.6189389384578422, 0.015395975730210065, -0.273612282384268, -0.5890494918334609], [0.12757114889271615, -0.5329554612351944, 1.45694958464518, -0.8162121217074306, 0.8460320772713494, 1.9747028037812315]], [[-1.2851541879691397, 3.0759290981253455, 0.5355266331039812, 0.7252323038193517, 0.7898395453835251, -1.5471126459019855, -0.7794846051679554, 0.8715248825915692, 1.4197030216913302, -1.1629318990519755], [1.2301350274469218, -1.057629293552348, 1.1917393827485305, -0.9139882633651811, 0.6784829480459164, -1.3284386346470693, -1.3026257425122556, 0.692173236772796, -0.30142633327540247, 0.12774904779300308], [0.5189909405325419, -0.48413735592613805, 1.2704257794113116, 0.7405489355953183, -1.6447411104378138, -1.8918315403951094, 1.518797505546265, -1.5734093253531085, 0.08982846741231244, -0.7896020552871988], [-0.3597770434145491, -0.5836755403975413, 1.2244229925147034, -0.15981075138963144, 1.547942600211046, 1.4191350664055, 0.24549892923806063, -0.567460249490452, 0.6920435064791891, -0.4310715471321307], [-1.0477861926999255, 1.797468009091262, -0.6878441055991187, 1.826096802554319, -0.38570012192798164, -0.6184337316485218, -1.7375291323702726, 0.863044957717295, 0.22825863574468291, 0.3191065677977134], [1.321636321568732, -0.2626029274389044, -1.9702016608675144, 0.2872554250992699, -0.7470454665176598, 1.099042833887909, -0.5748067498297961, 2.0073385033507254, 1.1832130906719767, 0.08964619676273877], [-0.06111057684944754, -0.8959120687018088, 0.5397011503123713, -0.9857640000882709, -1.4210633684421836, -1.4397942892281237, -0.5989471234563872, 0.3845766203348729, 0.3658753217716452, 0.43740873882782505], [2.33523076688661, -0.7669203077197456, 1.045347798820265, -0.2183972361433745, 1.8448808829010932, 0.8875423639381086, -1.840978516973397, -1.7264039756670357, 1.2623487711629298, -0.6039369339745171], [-0.6962010737622746, 0.0651348884710309, -0.1858660618793338, 0.6131050559577697, 0.3314520776078302, 1.4071631393499835, -2.12078150073624, -1.3261041276313932, 0.23943947093715362, -0.5688058064010995], [0.5385100934058197, -0.6772594578601293, 0.6171549217797506, 1.1263931390817554, -0.47005171124235234, -1.0903114054168284, 0.2826570792567239, -1.3037412454013524, 1.4446852902210858, 1.1631234345633072]], [[0.42580451954979276, -1.9752334768961577, 1.7486290798376316, 0.5066488435151059, 0.9526920235610827, 0.27649896126508855, 0.1724187381511879, -1.2991898273955385, -0.24194879128558214, -0.21213776790967484], [-0.07230484599422163, -2.517698529924232, -1.2098720164150742, -0.46881163554394806, 0.548972212752315, 0.9446037834349691, 0.42434437435044253, -0.7524091404264734, -0.6995777198830629, -0.9137698144699823], [-1.4204701777839257, 1.6143245343496417, -0.5943958865915806, -1.0206698376466257, -1.6050626640753485, -0.10987366229981543, 0.09901821269170379, 2.0847570370100152, -1.3645011771846776, 1.1955492416750546]]], "biases": [[[1.2375736394772314], [-0.22266398520222508], [0.3472774383815781], [-1.8075290252159986], [-0.9784095684500506], [1.0902785434747027], [1.3847474741921435], [1.037608765130202], [-1.954986342370375], [0.18677117984385844]], [[1.035311836983217], [0.5821525817752738], [-0.7981381622162527], [1.3972087753525662], [1.5523481333967803], [-0.6263305765931546], [-0.0877168523862772], [0.1474078386314888], [-0.834904128566206], [1.1873232200792707]], [[-0.9803738460506568], [-0.3660262172502412], [0.2936187644039872]]], "accuracy": 81.72}