{"weights": [[[3.3193749273789246, 1.2009081407298872, -3.039180019858314, -1.8237911649734206, 0.03992182015887726, -0.19831382822380494], [-0.04378023719821409, 0.5837291269456045, -0.8691911431256474, -0.276340637328165, 0.9380564804521817, -1.170096719015311], [-0.1249124616164929, -0.7074443666875725, 0.7419563765026559, 0.8002115448120712, 1.2550988124341478, 0.5841417402593428], [0.6792936176038074, -0.9227691638806743, 1.1049319349608404, -0.8538994675979007, -1.3927372447046094, 0.5129463793610051], [-0.4116893254618369, 0.6837419040269134, 1.20755541297797, 2.072610146636359, 0.2278575980967828, -0.5592905962121656], [-0.007413867250034469, 0.4408299237511126, -0.3379050530895364, -0.5925298856357117, 1.310574152730202, 0.04023237825641628], [-0.1373065783763399, -1.9579013033054733, 0.06542428510070084, 3.1592073948269324, -0.7203103259697499, 0.5635066631910347], [0.14963058686161448, -0.11381852764534775, 1.2789015620845268, 0.005097869336040623, 0.7865650080869333, -1.6202467466376362], [0.4405149778686634, 0.0032037867484559944, 1.2576102271406635, -0.5718953852912987, 0.38619166157449647, 0.6374235807046539], [0.6373887587144218, 0.9118698906349566, -0.9953298259959714, -0.39078574175260056, 0.5976263112327332, -4.00478666379854]], [[2.4553788943163255, 1.664833933663443, 2.7015392370409783, 1.1344221776298395, 0.4278817151901658, -1.279356108409122, 1.2253331397269145, -0.015452418271523806, 2.106047607520322, -0.9198633605083351], [-2.0915330237995264, 0.6997444650765333, -0.1997718101583643, 0.6374966435154464, -0.05501126073451385, -0.8430246589667064, 0.8522326019406361, -0.9068067636909208, 1.567400422908067, 3.505066387022351], [3.007933597031291, -1.3805580280932528, -1.2351741035851618, -0.25392575964150094, 1.2564502558235522, -0.46548868910315777, -2.0737776546999123, -0.05876245613330279, 1.6786859447669513, -0.5895172937599074], [0.4374224463839305, 0.8785783677378338, -0.5368331455392873, 0.6149270772625858, -1.3147099060378373, 2.531356642480318, 1.760061317019586, 0.5292611418983205, -0.8173849953552536, -0.6401930931337237], [0.05936597765537322, 0.2998573512351224, 0.03733176029627416, 1.6153913997317741, 1.6213640905090319, 0.16266686078311438, -0.7744614179907527, 1.4823247742825214, 0.019217618917695887, 0.2554402060573979], [-0.4166350283495645, -2.077331486062421, 1.4239430004378368, 0.13310789962689532, 1.6510185009339169, -1.134322320503917, -1.1117361891979003, 0.25697517024879285, -0.6030555798861964, -3.057698432404337], [1.6253624621879956, -1.2909196070918727, -2.235540140308027, 2.0448466906634724, -0.1042199071186203, -0.7679823532814608, -0.3752231924273835, 0.2453749546609328, -0.7944056514314571, -1.5643730810178325], [0.0326706326968867, -0.5837704127013804, -0.009323734905201306, -0.05066870177032296, -1.0730887339393327, 1.143654442909074, -0.7578279410744688, 0.46723534014070034, -0.7683492001730721, 0.013800860235539805], [0.7244620845157231, -1.7752948129524087, 1.575175756052405, -1.0235899029460953, -1.1211430534093387, 0.8235079219841425, 0.4593447524065715, -0.4878190392723477, -0.8795400538389174, -3.327420175877543], [0.2962390985653835, 1.0794634120126232, 1.8463994270137731, 1.6863927100634841, 1.0248073250928718, 0.8131584913197146, 0.9045249717587361, -0.5226075518612378, -0.029061347401426393, -0.17980254682684874]], [[1.3073577690324059, 2.5367540094442482, -2.181570897500344, -0.37889489987819763, -0.9045760386023899, -1.9038891933907136, -1.1111363254326116, 0.5549387468832567, -1.4367299535057378, 0.01011019150176297], [-0.8530795110469495, -0.49076330794650785, 3.294775692640666, -1.1213114331378455, -0.8778636569489007, -2.3544336166647994, -0.6980135057558996, 0.39895138273626296, -2.5230048446452185, 0.8666762254913547], [-1.2896364151439563, -3.1695321334022477, 0.1823281361641011, 0.6085878273995672, 0.153733286744937, 3.2031920462562726, -1.8947242232094277, 0.34957897699448887, 3.207529419848543, -0.8348359012730912]]], "biases": [[[0.19946928345729611], [-1.159003490342083], [0.8477638351705794], [-2.1002662252637583], [-0.9202898470950419], [-1.3700758157678559], [0.3285727086010543], [2.051666049774447], [-0.40952492581060634], [0.1786794922808833]], [[1.0109028683625427], [-2.167849301202758], [0.6820871436234547], [-0.6518478169815346], [0.6003077158829868], [2.1718180916933303], [0.20448448746763478], [-1.1391451667167776], [2.0990845474214193], [-1.151050272604208]], [[0.24676501867162448], [-0.05839675826473888], [-0.5557117468623894]]], "accuracy": 80.65}